digraph Tree {
node [shape=box] ;
0 [label="cp <= 0.5\ngini = 0.494\nsamples = 212\nvalue = [94, 118]\nclass = Yes"] ;
1 [label="ca <= 0.5\ngini = 0.415\nsamples = 102\nvalue = [72, 30]\nclass = No"] ;
0 -> 1 [labeldistance=2.5, labelangle=45, headlabel="True"] ;
2 [label="thal <= 2.5\ngini = 0.492\nsamples = 48\nvalue = [21, 27]\nclass = Yes"] ;
1 -> 2 ;
3 [label="gini = 0.328\nsamples = 29\nvalue = [6, 23]\nclass = Yes"] ;
2 -> 3 ;
4 [label="gini = 0.332\nsamples = 19\nvalue = [15, 4]\nclass = No"] ;
2 -> 4 ;
5 [label="age <= 63.5\ngini = 0.105\nsamples = 54\nvalue = [51, 3]\nclass = No"] ;
1 -> 5 ;
6 [label="gini = 0.0\nsamples = 43\nvalue = [43, 0]\nclass = No"] ;
5 -> 6 ;
7 [label="gini = 0.397\nsamples = 11\nvalue = [8, 3]\nclass = No"] ;
5 -> 7 ;
8 [label="oldpeak <= 1.95\ngini = 0.32\nsamples = 110\nvalue = [22, 88]\nclass = Yes"] ;
0 -> 8 [labeldistance=2.5, labelangle=-45, headlabel="False"] ;
9 [label="thalach <= 152.5\ngini = 0.255\nsamples = 100\nvalue = [15, 85]\nclass = Yes"] ;
8 -> 9 ;
10 [label="sex <= 0.5\ngini = 0.438\nsamples = 34\nvalue = [11, 23]\nclass = Yes"] ;
9 -> 10 ;
11 [label="gini = 0.133\nsamples = 14\nvalue = [1, 13]\nclass = Yes"] ;
10 -> 11 ;
12 [label="gini = 0.5\nsamples = 20\nvalue = [10, 10]\nclass = No"] ;
10 -> 12 ;
13 [label="age <= 57.5\ngini = 0.114\nsamples = 66\nvalue = [4, 62]\nclass = Yes"] ;
9 -> 13 ;
14 [label="trestbps <= 115.0\ngini = 0.038\nsamples = 51\nvalue = [1, 50]\nclass = Yes"] ;
13 -> 14 ;
15 [label="gini = 0.18\nsamples = 10\nvalue = [1, 9]\nclass = Yes"] ;
14 -> 15 ;
16 [label="gini = 0.0\nsamples = 41\nvalue = [0, 41]\nclass = Yes"] ;
14 -> 16 ;
17 [label="gini = 0.32\nsamples = 15\nvalue = [3, 12]\nclass = Yes"] ;
13 -> 17 ;
18 [label="gini = 0.42\nsamples = 10\nvalue = [7, 3]\nclass = No"] ;
8 -> 18 ;
}digraph Tree {
node [shape=box] ;
0 [label="cp <= 0.5\ngini = 0.494\nsamples = 212\nvalue = [94, 118]\nclass = Yes"] ;
1 [label="ca <= 0.5\ngini = 0.415\nsamples = 102\nvalue = [72, 30]\nclass = No"] ;
0 -> 1 [labeldistance=2.5, labelangle=45, headlabel="True"] ;
2 [label="thal <= 2.5\ngini = 0.492\nsamples = 48\nvalue = [21, 27]\nclass = Yes"] ;
1 -> 2 ;
3 [label="gini = 0.328\nsamples = 29\nvalue = [6, 23]\nclass = Yes"] ;
2 -> 3 ;
4 [label="gini = 0.332\nsamples = 19\nvalue = [15, 4]\nclass = No"] ;
2 -> 4 ;
5 [label="age <= 63.5\ngini = 0.105\nsamples = 54\nvalue = [51, 3]\nclass = No"] ;
1 -> 5 ;
6 [label="gini = 0.0\nsamples = 43\nvalue = [43, 0]\nclass = No"] ;
5 -> 6 ;
7 [label="gini = 0.397\nsamples = 11\nvalue = [8, 3]\nclass = No"] ;
5 -> 7 ;
8 [label="oldpeak <= 1.95\ngini = 0.32\nsamples = 110\nvalue = [22, 88]\nclass = Yes"] ;
0 -> 8 [labeldistance=2.5, labelangle=-45, headlabel="False"] ;
9 [label="thalach <= 152.5\ngini = 0.255\nsamples = 100\nvalue = [15, 85]\nclass = Yes"] ;
8 -> 9 ;
10 [label="sex <= 0.5\ngini = 0.438\nsamples = 34\nvalue = [11, 23]\nclass = Yes"] ;
9 -> 10 ;
11 [label="gini = 0.133\nsamples = 14\nvalue = [1, 13]\nclass = Yes"] ;
10 -> 11 ;
12 [label="gini = 0.5\nsamples = 20\nvalue = [10, 10]\nclass = No"] ;
10 -> 12 ;
13 [label="age <= 57.5\ngini = 0.114\nsamples = 66\nvalue = [4, 62]\nclass = Yes"] ;
9 -> 13 ;
14 [label="trestbps <= 115.0\ngini = 0.038\nsamples = 51\nvalue = [1, 50]\nclass = Yes"] ;
13 -> 14 ;
15 [label="gini = 0.18\nsamples = 10\nvalue = [1, 9]\nclass = Yes"] ;
14 -> 15 ;
16 [label="gini = 0.0\nsamples = 41\nvalue = [0, 41]\nclass = Yes"] ;
14 -> 16 ;
17 [label="gini = 0.32\nsamples = 15\nvalue = [3, 12]\nclass = Yes"] ;
13 -> 17 ;
18 [label="gini = 0.42\nsamples = 10\nvalue = [7, 3]\nclass = No"] ;
8 -> 18 ;
}