digraph Tree {
node [shape=box] ;
0 [label="Agency_Code <= 0.5\ngini = 0.43\nsamples = 2097\nvalue = [1442, 655]\nclass = no"] ;
1 [label="Sales <= 55.75\ngini = 0.473\nsamples = 650\nvalue = [250, 400]\nclass = yes"] ;
0 -> 1 [labeldistance=2.5, labelangle=45, headlabel="True"] ;
2 [label="Sales <= 15.5\ngini = 0.498\nsamples = 358\nvalue = [189, 169]\nclass = no"] ;
1 -> 2 ;
3 [label="gini = 0.274\nsamples = 67\nvalue = [56, 11]\nclass = no"] ;
2 -> 3 ;
4 [label="Duration <= 7.5\ngini = 0.496\nsamples = 291\nvalue = [133, 158]\nclass = yes"] ;
2 -> 4 ;
5 [label="gini = 0.477\nsamples = 61\nvalue = [37, 24]\nclass = no"] ;
4 -> 5 ;
6 [label="Age <= 27.5\ngini = 0.486\nsamples = 230\nvalue = [96, 134]\nclass = yes"] ;
4 -> 6 ;
7 [label="gini = 0.5\nsamples = 59\nvalue = [30, 29]\nclass = no"] ;
6 -> 7 ;
8 [label="Age <= 30.5\ngini = 0.474\nsamples = 171\nvalue = [66, 105]\nclass = yes"] ;
6 -> 8 ;
9 [label="gini = 0.398\nsamples = 51\nvalue = [14, 37]\nclass = yes"] ;
8 -> 9 ;
10 [label="gini = 0.491\nsamples = 120\nvalue = [52, 68]\nclass = yes"] ;
8 -> 10 ;
11 [label="Duration <= 84.5\ngini = 0.331\nsamples = 292\nvalue = [61, 231]\nclass = yes"] ;
1 -> 11 ;
12 [label="gini = 0.405\nsamples = 110\nvalue = [31, 79]\nclass = yes"] ;
11 -> 12 ;
13 [label="Duration <= 368.5\ngini = 0.275\nsamples = 182\nvalue = [30, 152]\nclass = yes"] ;
11 -> 13 ;
14 [label="gini = 0.305\nsamples = 117\nvalue = [22, 95]\nclass = yes"] ;
13 -> 14 ;
15 [label="gini = 0.216\nsamples = 65\nvalue = [8, 57]\nclass = yes"] ;
13 -> 15 ;
16 [label="Commision <= 20.475\ngini = 0.29\nsamples = 1447\nvalue = [1192, 255]\nclass = no"] ;
0 -> 16 [labeldistance=2.5, labelangle=-45, headlabel="False"] ;
17 [label="Product Name <= 1.5\ngini = 0.239\nsamples = 1204\nvalue = [1037, 167]\nclass = no"] ;
16 -> 17 ;
18 [label="Commision <= 9.8\ngini = 0.151\nsamples = 620\nvalue = [569, 51]\nclass = no"] ;
17 -> 18 ;
19 [label="Duration <= 5.5\ngini = 0.127\nsamples = 559\nvalue = [521, 38]\nclass = no"] ;
18 -> 19 ;
20 [label="gini = 0.02\nsamples = 101\nvalue = [100, 1]\nclass = no"] ;
19 -> 20 ;
21 [label="Duration <= 26.5\ngini = 0.149\nsamples = 458\nvalue = [421, 37]\nclass = no"] ;
19 -> 21 ;
22 [label="Sales <= 11.5\ngini = 0.114\nsamples = 214\nvalue = [201, 13]\nclass = no"] ;
21 -> 22 ;
23 [label="gini = 0.0\nsamples = 56\nvalue = [56, 0]\nclass = no"] ;
22 -> 23 ;
24 [label="Duration <= 15.5\ngini = 0.151\nsamples = 158\nvalue = [145, 13]\nclass = no"] ;
22 -> 24 ;
25 [label="gini = 0.192\nsamples = 93\nvalue = [83, 10]\nclass = no"] ;
24 -> 25 ;
26 [label="gini = 0.088\nsamples = 65\nvalue = [62, 3]\nclass = no"] ;
24 -> 26 ;
27 [label="Duration <= 40.5\ngini = 0.177\nsamples = 244\nvalue = [220, 24]\nclass = no"] ;
21 -> 27 ;
28 [label="gini = 0.256\nsamples = 73\nvalue = [62, 11]\nclass = no"] ;
27 -> 28 ;
29 [label="Sales <= 21.0\ngini = 0.14\nsamples = 171\nvalue = [158, 13]\nclass = no"] ;
27 -> 29 ;
30 [label="gini = 0.187\nsamples = 67\nvalue = [60, 7]\nclass = no"] ;
29 -> 30 ;
31 [label="gini = 0.109\nsamples = 104\nvalue = [98, 6]\nclass = no"] ;
29 -> 31 ;
32 [label="gini = 0.335\nsamples = 61\nvalue = [48, 13]\nclass = no"] ;
18 -> 32 ;
33 [label="Sales <= 20.5\ngini = 0.318\nsamples = 584\nvalue = [468, 116]\nclass = no"] ;
17 -> 33 ;
34 [label="Duration <= 32.0\ngini = 0.176\nsamples = 164\nvalue = [148, 16]\nclass = no"] ;
33 -> 34 ;
35 [label="gini = 0.101\nsamples = 112\nvalue = [106, 6]\nclass = no"] ;
34 -> 35 ;
36 [label="gini = 0.311\nsamples = 52\nvalue = [42, 10]\nclass = no"] ;
34 -> 36 ;
37 [label="Destination <= 0.5\ngini = 0.363\nsamples = 420\nvalue = [320, 100]\nclass = no"] ;
33 -> 37 ;
38 [label="Age <= 36.5\ngini = 0.324\nsamples = 315\nvalue = [251, 64]\nclass = no"] ;
37 -> 38 ;
39 [label="Sales <= 51.0\ngini = 0.348\nsamples = 263\nvalue = [204, 59]\nclass = no"] ;
38 -> 39 ;
40 [label="Duration <= 24.5\ngini = 0.365\nsamples = 204\nvalue = [155, 49]\nclass = no"] ;
39 -> 40 ;
41 [label="gini = 0.315\nsamples = 107\nvalue = [86, 21]\nclass = no"] ;
40 -> 41 ;
42 [label="gini = 0.411\nsamples = 97\nvalue = [69, 28]\nclass = no"] ;
40 -> 42 ;
43 [label="gini = 0.282\nsamples = 59\nvalue = [49, 10]\nclass = no"] ;
39 -> 43 ;
44 [label="gini = 0.174\nsamples = 52\nvalue = [47, 5]\nclass = no"] ;
38 -> 44 ;
45 [label="gini = 0.451\nsamples = 105\nvalue = [69, 36]\nclass = no"] ;
37 -> 45 ;
46 [label="Sales <= 123.75\ngini = 0.462\nsamples = 243\nvalue = [155, 88]\nclass = no"] ;
16 -> 46 ;
47 [label="Age <= 36.5\ngini = 0.427\nsamples = 188\nvalue = [130, 58]\nclass = no"] ;
46 -> 47 ;
48 [label="gini = 0.465\nsamples = 87\nvalue = [55, 32]\nclass = no"] ;
47 -> 48 ;
49 [label="gini = 0.382\nsamples = 101\nvalue = [75, 26]\nclass = no"] ;
47 -> 49 ;
50 [label="gini = 0.496\nsamples = 55\nvalue = [25, 30]\nclass = yes"] ;
46 -> 50 ;
}